20
20
20
1
-0.2729800198
-1
0.4976362173
-0.4829636888
0.5708574202
1
-1
1
-0.3420784643
-0.4118172135
-0.6757799668
0.642925002
-0.8211266675
-1
-0.1996287263
-0.9935950502
-0.6189433641
-1
-0.8053332654
-0.6644521176
-0.0569342441
1
-1
-0.1073036399
-0.365215125
-1
1
-1
1
-1
0.4648082258
-1
1
0.6300464815
1
1
-0.0283186667
1
0.2987404903
0.3534053898
0.1979739369
-0.1023693031
0.1700428039
1
0.2549260548
-1
0.6184784821
-1
-0.127514824
-1
0.1429054174
-1
0.825749065
-0.1529069338
0.2426280917
-0.0349452463
1
1
1
-0.2685768059
-0.7676953819
-1
0.927410588
-1
0.8152411441
1
-0.5288584362
0.9760177928
0.0334125059
-0.1193598348
-1
1
-0.4799580673
0.0188937151
-0.6968438281
-0.7860792527
-0.9465772289
-0.0032843313
-0.6392538052
-1
-0.7782003864
0.5787693008
-0.4279821735
-0.4550444373
1
0.4390922523
0.2378378465
0.2971950452
-0.8978020473
0.664985654
-0.0267652213
1
-0.1292221885
-0.6995227261
-1
-0.5216379199
-0.4323614525
0.5248066629
-0.3247507925
-0.9568329247
0.3413329825
1
0.338622893
1
-0.544645738
-1
1
0.1721648195
1
-0.1269665783
0.4641089543
-0.3226875435
0.911578736
0.5231576882
0.5921300518
0.4795891848
0.3483346182
0.659609706
0.0962358502
0.6309211248
1
1
-0.8844454924
0.6131557358
-1
-1
1
-0.8633287038
1
-1
0.0831348872
-1
1
0.1853665884
0.3110995542
0.8863886354
1
0.7047435258
1
1
-0.9343767261
-0.2167525874
-0.541932563
-0.4564627886
0.5859411652
1
-0.1470039175
1
0.3812908785
0.3129978734
0.4890167674
0.2943948978
-1
0.5734537894
-0.5591126032
-0.4855103468
0.4639861965
0.0828646156
-0.9163907213
0.1900372458
-0.613081623
0.4904083698
-0.2776281738
-1
0.913490418
-0.0064431804
-1
0.3598254302
-0.3027123079
0.7133957341
-0.6396902775
0.5433105098
-0.5152465318
-0.6339015939
-1
-0.9453141486
-0.5744708224
-1
-0.5637204222
-0.0969072791
0.9513981349
1
-1
0.561792993
-1
0.0285134386
0.5268747043
-0.5511516624
0.5210045805
-1
1
-0.2697596961
0.3049848587
1
1
-0.0597790648
0.3067531582
0.1128598455
1
1
-1
-1
0.6929276104
-1
0.4651752206
0.6797206054
-0.1089401289
-0.091781493
-0.861841534
0.1842369933
-1
1
-0.041964865
-1
-0.1375253898
-1
0.198955489
-1
-0.9241381372
-0.1107152949
-1
-0.2722660878
1
-0.542278186
1
0.9903117982
-0.6205083427
-0.2114766543
-1
1
-1
1
-0.6806448653
-0.7311515292
-1
-0.2655816132
-1
-1
-1
-1
-0.7654742931
-0.6212291142
-0.5791991412
-0.01365716
-0.3805092872
-0.2556078454
0.4700477441
0.4193490802
-0.961762732
1
-0.5194688968
0.6616967523
-0.1488226818
-1
-0.6013561882
-0.1652561673
-1
-1
-0.2005435806
-1
0.4802150715
-0.2084998344
-1
-0.3415105112
-0.0872799839
-0.6794460329
1
-1
0.0935541758
-0.7274750627
1
-0.1568182484
0.6613540366
0.0771320592
1
1
0.7259891292
-0.2057450762
1
0.7217787183
0.1707379335
0.1601365739
1
-1
0.2412273513
0.398367205
-1
1
0.2386241387
-0.1778000728
-1
0.6495383871
-1
-1
-1
-0.9641064745
-0.9565497929
0.0329227648
-0.7698143371
-0.9317842286
0.5745005039
0.0501026776
-1
0.0466014559
-0.9212219016
-1
0.5369898635
-0.4995212371
0.2783271966
-1
-0.1197486943
-0.9384102716
1
0.9666500743
0.5261464213
1
1
0.2200439687
1
0.3733439308
-0.0364639343
0.1032965123
0.1162390983
-0.185385225
-1
-0.8891884244
0.2233152275
-0.5160152475
-0.3312472629
-0.4454033719
0.2871044818
-1
-0.1535023544
0.3438452355
0.6559180711
1
0.7080525304
1
0.559669616
-0.2887752091
-0.0643861952
-0.2522819027
-0.9448384255
-0.0884484308
-0.1205056803
-0.4981448384
1
-0.9849364154
0.3817727329
-0.2183471985
0.5735325896
0.2486354099
0.2783256323
1
0.7389361697
0.8946005384
0.7464031154
-0.2116043335
0.8398065759
1
0.5375605299
-0.1179573825
-0.0813728669
-0.6391556339
-1
-0.9380699444
-0.0287454832
-0.7920647288
0.2002137627
0.5425271347
-0.2968618821
-0.4218371306
0.9351324227
-0.6386439077
-0.316386821
1
-0.1994729557
-0.1773287536
-0.625457481
-0.083672974
-1
0.5078667396
0.7299840884
-0.279452091
0.4681662433
1
-0.075086605
1
-1
1
0.0704202325
1
0.4188682522
-1
-0.9600663722
-0.9788021169
0.102703397
0.1752851026
-1
-0.7044380823
-0.8862142764
-0.2910958178
0.5961376834
-0.6259887213
-0.486110828
-0.4046254487
-0.586413521
-0.7427663978
-0.720935629
0.9640299299
-0.2006628233
0.1850083218
-0.6603688182
0.1282533939
0.065791905
0.7832619901
0.8159566456
0.3956473987
-0.4772920551
0.3199668427
-0.7350473659
0.9989005747
-0.3935408452
1
0.3427187352
-0.1862419429
0.3513181606
0.1811872171
-0.968530704
0.5416454801
-0.9876768813
0.1133717185
0.5847698873
0.7611885617
-0.5392043353
0.5900303229
0.2392367994
0.2370466567
0.9855116228
0.8658463342
0.9210005016
-0.4915655889
0.1482560925
0.4606872153
-0.7631872353
0.0280977105
-0.199124607
-0.20079997
-0.1075771534
-0.6139367299
0.0083489149
0.9915733545
-0.2851880952
0.0373641614
0.4882683615
0.5838683087
0.0601872554
0.229736884
-0.6479686944
0.8102783096
-0.4172698136
0.4380057186
-0.3690494693
-0.1806152237
-0.0870665962
-0.6634996597
-0.1754841809
-0.3162199161
0.5392157022
0.9052238072
0.1351431411
0.5559989851
-0.8211866036
0.2514706617
-0.0584006876
-0.3948494951
0.361087438
0.6847977442
0.6287367061
0.635150779
-0.3858724335
-0.4097075188
-0.6054068745
0.2452243981
-0.880316325
0.5204626662
-0.8576289473
0.52915509
0.2224318921
0.4408721945
0.9868483071
0.1339927369
0.4253636516
0.3909074466
0.3501596705
-0.8754416089
0.2621581792
-0.142273777
0.4040465195
-0.4264112116
-0.4654744079
-0.6771938848
-0.2827206049
-0.3981323575
-0.054291555
-0.5751723378
-0.4741492346
-0.2855314703
-0.0484301119
0.5132219802
0.6311474542
0.9908324824
0.5128593788
-0.0426206532
0.492778325
0.3528154249
0.707728602
-0.6897555558
0.4118927351
0.0486323208
0.3849185134
0.9987700915
0.9882040412
0.2938845948
-0.7892549894
0.9811370959
0.9466031013
0.5965743052
-0.9595533658
0.3828249716
0.2458122633
-0.9911809754
0.9999992387
0.4957309199
-0.6778108382
-0.7665528331
0.8477836156
-0.009219928
-0.2304398564
0.4925452943
0.962188105
-0.7788688406
-0.7054306189
0.232060614
0.1619174757
0.1985862104
-0.000965874
-0.4550492201
-0.8117548739
0.1301208561
0.39863514
0.8327721046
-0.0670442647
-0.9721639561
-0.8235355281
0.36573145
0.0341913451
0.0191221723
0.4566969088
0.641330933
0.8213820525
-0.2442540535
-0.2803812574
0.0137190827
0.2446391748
0.378307045
0.0614585455
-0.4218806162
0.4870561084
0.0321855172
-0.6122736474
-0.1053222991
-0.0829056211
0.5477847667
1
0.2008320932
0.1778239549
-0.8433398966
-0.3793621788
-0.3414539973
0.0575129829
-0.3929957532
-0.2754780358
0.6096567577
-0.4750009014
-0.9901071358
-0.9775050233
-0.2224853347
-0.4332132871
0.7083923528
0.4509723913
0.453424661
-0.7991962808
-0.7578440484
-0.194302923
-0.0378722274
-0.3616058009
0.0462595845
0.3438983508
0.6920441578
-0.0465662194
0.3983368751
0.9886842049
0.2234911129
-0.2433741754
0.4823787391
0.6348570977
-0.0499481607
0.5556624915
0.8323110888
-0.3285648751
-0.8353444634
0.8167384744
0.2133169539
-0.5462796292
0.2644664301
0.296077276
-0.7286173429
0.6112939781
-0.6515429962
-0.5832217226
-0.106348201
-0.3480453692
0.1575552742
0.5471045546
-0.9894532099
0.449490351
0.0452178335
-0.2448751531
0.4314076412
-0.4500890437
0.3782607222
0.5214575165
0.2607358364
-0.3166704662
0.5689501448
-0.0170713178
-0.6139479227
0.4916217113
0.8303229911
-0.6343949536
0.9987903002
0.4761834441
-0.4105145962
-0.5031081806
-0.36239152
0.8793845142
0.5292170416
-0.1958419332
-0.6220098276
-0.7911754064
0.0451016715
-0.4013042514
-0.0773402014
-0.213747653
0.41231823
-0.0288657624
-0.3296919012
0.983882879
0.2246144085
-0.5867973139
0.9469187256
0.9888400552
-0.4150883478
0.7536183529
0.7879630015
-0.4034181428
0.2470427068
-0.3598936961
0.0920443335
-0.0278005617
-0.1727465477
0.0708602743
0.0606793925
0.1470692084
0.6118755615
-0.7941154136
0.9758779551
-0.116950941
-0.8933296172
-0.37937486
-0.1257091076
0.5234522601
-0.7178597729
-0.4018810209
0.9896985172
0.9699763456
-0.7716268843
0.5429364206
0.5644695864
0.1322017644
0.3790878961
0.6811591449
0.8046612645
-0.4945059532
-0.3648176323
-0.206104606
0.2029888526
-0.4349948807
-0.1183290129
0.5264607269
0.6225655559
0.9880496348
-0.3379867284
-0.5277943057
-0.6423117337
0.4179862664
-0.8011458668
-0.4371313672
0.9611579698
-0.986003097
-0.2935915336
-0.2093950573
0.2712928947
1
0.2735867209
-0.0082005484
0.9060469449
-0.0375543508
0.8346600929
-0.9639688676
0.1267280418
0.5062941291
-0.0970095003
0.6096307909
0.7290774889
0.51640295
0.0027436926
-0.4171298949
0.4081857502
-0.3161600571
0.2716317475
-0.7030940029
0.6093856831
-0.8081216625
0.8077357896
-0.5701181585
-0.4944752836
-0.6655814977
-0.2485745823
0.2259256798
-0.1882521966
-0.5444250796
-0.7031049307
-0.7510800024
-0.5778784349
0.4943633264
-0.2560543986
-0.3093344418
0.2327579486
-0.837682159
0.5673347025
0.1694939769
-0.6122131581
-0.9251356604
0.5482169822
-0.0494497004
-0.819388604
0.9846122181
0.7963690465
0.6930493868
-0.052078638
-0.0004314902
0.2550237465
0.2469707494
0.2264841522
-0.2099774047
0.7204653831
-0.9437040572
0.3993645731
-0.9039706808
-0.9909111204
-0.4233711865
0.0501439217
-0.8465251782
-0.9541256751
0.880759629
-0.4002479834
-0.161793219
-0.2468003241
0.2131841493
0.4929084302
0.9887242673
0.0402174954
-0.0279139306
0.9863914984
0.3985602853
-0.2135996406
0.4604226159
0.6894435824
0.4511022904
-0.5274628105
0.0502948181
0.9731671763
-0.8233834487
0.3682140903
0.2696808648
0.4071910579
0.5846006572
-0.064777141
